FANN_FLO_2.1
num_layers=3
learning_rate=0.700000
connection_rate=1.000000
network_type=0
learning_momentum=0.000000
training_algorithm=2
train_error_function=1
train_stop_function=0
cascade_output_change_fraction=0.010000
quickprop_decay=-0.000100
quickprop_mu=1.750000
rprop_increase_factor=1.200000
rprop_decrease_factor=0.500000
rprop_delta_min=0.000000
rprop_delta_max=50.000000
rprop_delta_zero=0.100000
cascade_output_stagnation_epochs=12
cascade_candidate_change_fraction=0.010000
cascade_candidate_stagnation_epochs=12
cascade_max_out_epochs=150
cascade_min_out_epochs=50
cascade_max_cand_epochs=150
cascade_min_cand_epochs=50
cascade_num_candidate_groups=2
bit_fail_limit=3.49999994039535522461e-01
cascade_candidate_limit=1.00000000000000000000e+03
cascade_weight_multiplier=4.00000005960464477539e-01
cascade_activation_functions_count=10
cascade_activation_functions=3 5 7 8 10 11 14 15 16 17 
cascade_activation_steepnesses_count=4
cascade_activation_steepnesses=2.50000000000000000000e-01 5.00000000000000000000e-01 7.50000000000000000000e-01 1.00000000000000000000e+00 
layer_sizes=4 11 4 
scale_included=0
neurons (num_inputs, activation_function, activation_steepness)=(0, 0, 0.00000000000000000000e+00) (0, 0, 0.00000000000000000000e+00) (0, 0, 0.00000000000000000000e+00) (0, 0, 0.00000000000000000000e+00) (4, 5, 5.00000000000000000000e-01) (4, 5, 5.00000000000000000000e-01) (4, 5, 5.00000000000000000000e-01) (4, 5, 5.00000000000000000000e-01) (4, 5, 5.00000000000000000000e-01) (4, 5, 5.00000000000000000000e-01) (4, 5, 5.00000000000000000000e-01) (4, 5, 5.00000000000000000000e-01) (4, 5, 5.00000000000000000000e-01) (4, 5, 5.00000000000000000000e-01) (0, 5, 0.00000000000000000000e+00) (11, 5, 5.00000000000000000000e-01) (11, 5, 5.00000000000000000000e-01) (11, 5, 5.00000000000000000000e-01) (0, 5, 0.00000000000000000000e+00) 
connections (connected_to_neuron, weight)=(0, -5.01900434494018554688e+00) (1, 3.11891889572143554688e+00) (2, 1.04889860153198242188e+01) (3, -8.20463275909423828125e+00) (0, -3.79696339368820190430e-02) (1, 8.73097419738769531250e-01) (2, 1.85168072581291198730e-01) (3, -1.27572524547576904297e+00) (0, -4.74286288022994995117e-01) (1, 1.25111177563667297363e-01) (2, 2.84798536449670791626e-03) (3, 3.56424421072006225586e-01) (0, 4.05145250260829925537e-02) (1, -3.26034116744995117188e+00) (2, -1.82132869958877563477e-01) (3, 4.28213357925415039062e+00) (0, 3.43739223480224609375e+00) (1, -1.89647868275642395020e-01) (2, -1.12060093879699707031e+00) (3, 7.13390111923217773438e-01) (0, 1.19821870326995849609e+00) (1, -1.22080063447356224060e-02) (2, 1.48622855544090270996e-01) (3, -1.05245947837829589844e+00) (0, 2.96443605422973632812e+00) (1, 7.96380732208490371704e-03) (2, 2.65524196624755859375e+00) (3, -6.79078245162963867188e+00) (0, 1.29138737916946411133e-01) (1, 1.52722358703613281250e-01) (2, -8.17827165126800537109e-01) (3, 7.78678178787231445312e-01) (0, 2.04747200012207031250e+00) (1, 4.24735069274902343750e+00) (2, 2.43436336517333984375e+00) (3, -1.01896219253540039062e+01) (0, 3.54327964782714843750e+00) (1, -1.55922574922442436218e-02) (2, 1.59234672784805297852e-01) (3, -3.61133551597595214844e+00) (4, 1.08634131029248237610e-02) (5, -8.71225893497467041016e-01) (6, 6.12643289566040039062e+00) (7, -5.19987717270851135254e-02) (8, 5.60325384140014648438e-01) (9, -1.73335189819335937500e+01) (10, -1.68617263436317443848e-01) (11, -8.38761270046234130859e-01) (12, 1.81804802268743515015e-02) (13, 1.62958183288574218750e+01) (14, 1.21492660045623779297e+00) (4, -1.26975390594452619553e-03) (5, -1.93078403472900390625e+01) (6, 2.35199713706970214844e+00) (7, -1.04609298706054687500e+01) (8, 9.27454531192779541016e-02) (9, 2.14105701446533203125e+00) (10, -5.64677678048610687256e-02) (11, -2.38234686851501464844e+00) (12, 2.41513196378946304321e-02) (13, -5.75505435466766357422e-01) (14, 1.76395905017852783203e+00) (4, 1.02964954376220703125e+01) (5, -6.86981630325317382812e+00) (6, 3.72062158584594726562e+00) (7, -1.07537436485290527344e+00) (8, -2.88457202911376953125e+00) (9, -2.65410757064819335938e+00) (10, 1.17888498306274414062e+01) (11, 2.50884017944335937500e+01) (12, -5.49851894378662109375e+00) (13, 3.48135542869567871094e+00) (14, 1.33688613772392272949e-01) 
