FANN_FLO_2.1
num_layers=4
learning_rate=0.700000
connection_rate=1.000000
network_type=0
learning_momentum=0.000000
training_algorithm=2
train_error_function=1
train_stop_function=0
cascade_output_change_fraction=0.010000
quickprop_decay=-0.000100
quickprop_mu=1.750000
rprop_increase_factor=1.200000
rprop_decrease_factor=0.500000
rprop_delta_min=0.000000
rprop_delta_max=50.000000
rprop_delta_zero=0.100000
cascade_output_stagnation_epochs=12
cascade_candidate_change_fraction=0.010000
cascade_candidate_stagnation_epochs=12
cascade_max_out_epochs=150
cascade_min_out_epochs=50
cascade_max_cand_epochs=150
cascade_min_cand_epochs=50
cascade_num_candidate_groups=2
bit_fail_limit=3.49999994039535522461e-01
cascade_candidate_limit=1.00000000000000000000e+03
cascade_weight_multiplier=4.00000005960464477539e-01
cascade_activation_functions_count=10
cascade_activation_functions=3 5 7 8 10 11 14 15 16 17 
cascade_activation_steepnesses_count=4
cascade_activation_steepnesses=2.50000000000000000000e-01 5.00000000000000000000e-01 7.50000000000000000000e-01 1.00000000000000000000e+00 
layer_sizes=7 21 11 4 
scale_included=0
neurons (num_inputs, activation_function, activation_steepness)=(0, 0, 0.00000000000000000000e+00) (0, 0, 0.00000000000000000000e+00) (0, 0, 0.00000000000000000000e+00) (0, 0, 0.00000000000000000000e+00) (0, 0, 0.00000000000000000000e+00) (0, 0, 0.00000000000000000000e+00) (0, 0, 0.00000000000000000000e+00) (7, 5, 5.00000000000000000000e-01) (7, 5, 5.00000000000000000000e-01) (7, 5, 5.00000000000000000000e-01) (7, 5, 5.00000000000000000000e-01) (7, 5, 5.00000000000000000000e-01) (7, 5, 5.00000000000000000000e-01) (7, 5, 5.00000000000000000000e-01) (7, 5, 5.00000000000000000000e-01) (7, 5, 5.00000000000000000000e-01) (7, 5, 5.00000000000000000000e-01) (7, 5, 5.00000000000000000000e-01) (7, 5, 5.00000000000000000000e-01) (7, 5, 5.00000000000000000000e-01) (7, 5, 5.00000000000000000000e-01) (7, 5, 5.00000000000000000000e-01) (7, 5, 5.00000000000000000000e-01) (7, 5, 5.00000000000000000000e-01) (7, 5, 5.00000000000000000000e-01) (7, 5, 5.00000000000000000000e-01) (7, 5, 5.00000000000000000000e-01) (0, 5, 0.00000000000000000000e+00) (21, 5, 5.00000000000000000000e-01) (21, 5, 5.00000000000000000000e-01) (21, 5, 5.00000000000000000000e-01) (21, 5, 5.00000000000000000000e-01) (21, 5, 5.00000000000000000000e-01) (21, 5, 5.00000000000000000000e-01) (21, 5, 5.00000000000000000000e-01) (21, 5, 5.00000000000000000000e-01) (21, 5, 5.00000000000000000000e-01) (21, 5, 5.00000000000000000000e-01) (0, 5, 0.00000000000000000000e+00) (11, 5, 5.00000000000000000000e-01) (11, 5, 5.00000000000000000000e-01) (11, 5, 5.00000000000000000000e-01) (0, 5, 0.00000000000000000000e+00) 
connections (connected_to_neuron, weight)=(0, 7.47754797339439392090e-02) (1, 4.25847545266151428223e-02) (2, -6.54512643814086914062e-03) (3, -5.75906410813331604004e-02) (4, -6.34029656648635864258e-02) (5, -1.13819837570190429688e-02) (6, -2.61669456958770751953e-02) (0, 1.21872797608375549316e-02) (1, -5.82726038992404937744e-02) (2, 2.63013616204261779785e-02) (3, 8.54134187102317810059e-02) (4, -5.62335029244422912598e-02) (5, -1.12721100449562072754e-02) (6, -4.06328551471233367920e-02) (0, 2.33507901430130004883e-02) (1, -4.20497544109821319580e-02) (2, -5.13800494372844696045e-02) (3, 1.91394090652465820312e-02) (4, 7.81059265136718750000e-04) (5, 5.48273250460624694824e-02) (6, -7.53093287348747253418e-02) (0, -6.32323026657104492188e-02) (1, -5.77324926853179931641e-02) (2, 6.94548711180686950684e-02) (3, -9.99483689665794372559e-02) (4, -1.42118334770202636719e-02) (5, -1.76132097840309143066e-02) (6, -6.98827132582664489746e-02) (0, 3.70693281292915344238e-02) (1, 7.57153332233428955078e-03) (2, -1.99538394808769226074e-02) (3, 1.18448138236999511719e-02) (4, -4.98437248170375823975e-02) (5, 7.35010281205177307129e-02) (6, 5.42541816830635070801e-02) (0, -1.32466852664947509766e-02) (1, -3.78809534013271331787e-02) (2, -7.19127729535102844238e-02) (3, 9.89406034350395202637e-02) (4, 3.84644418954849243164e-03) (5, 5.43885901570320129395e-02) (6, 8.43540206551551818848e-02) (0, 4.76129427552223205566e-02) (1, -5.68835213780403137207e-02) (2, -5.62788359820842742920e-02) (3, -2.90362685918807983398e-02) (4, 1.06672197580337524414e-03) (5, -7.65888392925262451172e-03) (6, 9.01031419634819030762e-02) (0, -9.81522202491760253906e-02) (1, -5.28315678238868713379e-02) (2, -8.52061882615089416504e-02) (3, -6.13845139741897583008e-02) (4, -1.05640590190887451172e-02) (5, 8.42486843466758728027e-02) (6, -6.13328814506530761719e-02) (0, 7.52241089940071105957e-02) (1, -3.33645194768905639648e-02) (2, -3.12155932188034057617e-02) (3, 1.22934356331825256348e-02) (4, 7.42070153355598449707e-02) (5, 4.88305613398551940918e-02) (6, -7.58617520332336425781e-02) (0, -7.56367146968841552734e-02) (1, 2.23315954208374023438e-02) (2, 7.83924236893653869629e-02) (3, 1.11166015267372131348e-02) (4, 8.44506397843360900879e-02) (5, -9.35203433036804199219e-02) (6, 1.00571885704994201660e-02) (0, -1.17029175162315368652e-02) (1, 6.08682408928871154785e-02) (2, -5.58879226446151733398e-03) (3, -6.40899762511253356934e-02) (4, -9.60152819752693176270e-02) (5, 3.81323769688606262207e-02) (6, 6.87374919652938842773e-03) (0, 5.05144894123077392578e-03) (1, -6.95265084505081176758e-02) (2, -3.02311033010482788086e-03) (3, 6.89922273159027099609e-03) (4, -2.23580747842788696289e-02) (5, 1.17707028985023498535e-02) (6, 4.55147102475166320801e-02) (0, 6.70778676867485046387e-02) (1, -3.98061424493789672852e-03) (2, 8.41818377375602722168e-02) (3, 4.23019602894783020020e-02) (4, 6.26548603177070617676e-02) (5, -4.70337644219398498535e-02) (6, -4.54045943915843963623e-02) (0, 3.68618741631507873535e-02) (1, -9.82032045722007751465e-02) (2, -2.12663412094116210938e-02) (3, 6.12251535058021545410e-02) (4, 2.41283923387527465820e-02) (5, -4.28739190101623535156e-02) (6, -2.76582464575767517090e-02) (0, 8.57903808355331420898e-03) (1, -3.63942608237266540527e-02) (2, 8.23989436030387878418e-02) (3, 9.68761220574378967285e-02) (4, -7.55260139703750610352e-02) (5, -2.31898501515388488770e-02) (6, -6.72138631343841552734e-02) (0, -7.15412944555282592773e-02) (1, -8.50574746727943420410e-02) (2, 3.96598950028419494629e-02) (3, 3.35101559758186340332e-02) (4, -5.45839890837669372559e-02) (5, -6.33632168173789978027e-02) (6, -5.95906190574169158936e-02) (0, 2.30579376220703125000e-02) (1, 4.84074875712394714355e-02) (2, 8.59240964055061340332e-02) (3, -9.86420363187789916992e-03) (4, -5.55731281638145446777e-02) (5, 7.01059326529502868652e-02) (6, -6.75622448325157165527e-02) (0, -9.29182618856430053711e-02) (1, -7.69278332591056823730e-02) (2, -1.29668414592742919922e-02) (3, 4.39436063170433044434e-02) (4, -7.51310363411903381348e-02) (5, 6.57668188214302062988e-02) (6, 5.16875833272933959961e-03) (0, 4.89973500370979309082e-02) (1, -7.71071016788482666016e-02) (2, 7.75105133652687072754e-02) (3, -4.24236059188842773438e-02) (4, -1.35013610124588012695e-02) (5, 5.99094703793525695801e-02) (6, -4.55474853515625000000e-02) (0, 1.09726190567016601562e-02) (1, -6.32803887128829956055e-02) (2, -1.27613395452499389648e-02) (3, 3.94313409924507141113e-02) (4, -4.83378656208515167236e-02) (5, -7.31014460325241088867e-02) (6, -2.70585194230079650879e-02) (7, -2.92185693979263305664e-03) (8, -3.64646613597869873047e-02) (9, 1.33508592844009399414e-02) (10, -7.98639208078384399414e-02) (11, -8.80571752786636352539e-02) (12, -7.25045800209045410156e-04) (13, 1.02718695998191833496e-02) (14, -4.36303019523620605469e-02) (15, -3.06191146373748779297e-02) (16, 4.27096262574195861816e-02) (17, -3.65485697984695434570e-02) (18, -7.54694640636444091797e-03) (19, -7.02572092413902282715e-02) (20, -9.26049500703811645508e-02) (21, 1.73220187425613403320e-02) (22, 9.55095961689949035645e-02) (23, 1.25638097524642944336e-02) (24, -3.36806327104568481445e-02) (25, -8.15974920988082885742e-02) (26, -9.92567092180252075195e-03) (27, 2.38957628607749938965e-02) (7, 4.90114837884902954102e-03) (8, -5.00162132084369659424e-02) (9, 7.83482864499092102051e-02) (10, -8.41262266039848327637e-02) (11, -1.32966041564941406250e-02) (12, -3.44130620360374450684e-02) (13, 5.53051009774208068848e-02) (14, 3.83655354380607604980e-02) (15, -7.51451402902603149414e-03) (16, -7.17534199357032775879e-02) (17, -6.45563229918479919434e-02) (18, 5.60208335518836975098e-02) (19, 4.15974333882331848145e-02) (20, -4.44202423095703125000e-02) (21, 6.79636523127555847168e-02) (22, -5.91276064515113830566e-02) (23, 6.58516362309455871582e-02) (24, -7.56666511297225952148e-02) (25, 1.02532729506492614746e-02) (26, 8.56125354766845703125e-03) (27, -1.22152119874954223633e-02) (7, -9.72936749458312988281e-02) (8, 3.83040383458137512207e-02) (9, -4.82016801834106445312e-03) (10, 2.00283378362655639648e-02) (11, 3.38136479258537292480e-02) (12, -9.22563597559928894043e-02) (13, 8.63477066159248352051e-02) (14, 5.22161498665809631348e-02) (15, -2.18202173709869384766e-03) (16, 1.02434754371643066406e-02) (17, -4.28826995193958282471e-02) (18, 4.78017553687095642090e-02) (19, -1.14082470536231994629e-02) (20, -2.70089283585548400879e-02) (21, -6.54948428273200988770e-02) (22, 5.41786924004554748535e-02) (23, -7.17038288712501525879e-02) (24, 7.28706791996955871582e-02) (25, -5.33358193933963775635e-02) (26, -4.34572473168373107910e-02) (27, -9.16856378316879272461e-02) (7, -9.73149910569190979004e-02) (8, 9.81401875615119934082e-02) (9, -3.61058786511421203613e-02) (10, 7.06486627459526062012e-02) (11, -6.09874129295349121094e-02) (12, -7.02542513608932495117e-02) (13, 9.49820056557655334473e-02) (14, 4.92658689618110656738e-02) (15, 3.83070036768913269043e-02) (16, -1.72332078218460083008e-02) (17, 5.19722029566764831543e-02) (18, -2.33889594674110412598e-02) (19, 7.79466107487678527832e-02) (20, -2.79994681477546691895e-02) (21, -8.95753130316734313965e-02) (22, 8.56902673840522766113e-02) (23, -4.16517518460750579834e-02) (24, 6.26408532261848449707e-02) (25, -1.64917632937431335449e-02) (26, 6.85917213559150695801e-02) (27, -8.02418589591979980469e-02) (7, -6.86900019645690917969e-02) (8, -4.28165160119533538818e-02) (9, -7.25077837705612182617e-03) (10, -3.41848507523536682129e-02) (11, -8.86378288269042968750e-02) (12, 2.10453867912292480469e-02) (13, -6.13141618669033050537e-02) (14, -4.19736467301845550537e-02) (15, 7.75881484150886535645e-02) (16, -5.29997907578945159912e-02) (17, -3.92886362969875335693e-02) (18, 7.57283344864845275879e-02) (19, 1.08943358063697814941e-02) (20, -6.86399787664413452148e-02) (21, -8.52590799331665039062e-02) (22, 4.06400784850120544434e-02) (23, -7.36579746007919311523e-02) (24, 6.40067979693412780762e-02) (25, -2.10529193282127380371e-02) (26, 9.10881906747817993164e-03) (27, 1.59789770841598510742e-02) (7, 5.55581226944923400879e-02) (8, -1.29445642232894897461e-02) (9, 8.79795178771018981934e-02) (10, 6.59828260540962219238e-02) (11, -2.72543057799339294434e-02) (12, -5.36722317337989807129e-02) (13, 2.86236628890037536621e-02) (14, 5.62539175152778625488e-02) (15, -8.50805044174194335938e-02) (16, 4.83818128705024719238e-02) (17, 8.75639244914054870605e-02) (18, -2.78970152139663696289e-02) (19, -5.88689781725406646729e-02) (20, -4.66209314763545989990e-02) (21, -1.65348425507545471191e-02) (22, 6.21764138340950012207e-02) (23, -7.93508440256118774414e-03) (24, 4.14915159344673156738e-02) (25, 3.97645607590675354004e-02) (26, 3.90651300549507141113e-02) (27, -9.77971255779266357422e-02) (7, 1.54928937554359436035e-02) (8, -5.00405468046665191650e-02) (9, -6.64371028542518615723e-02) (10, 3.02338078618049621582e-02) (11, 9.05995443463325500488e-02) (12, -4.00950722396373748779e-02) (13, -5.75938820838928222656e-03) (14, -3.04533839225769042969e-02) (15, 6.90137371420860290527e-02) (16, -8.97804051637649536133e-02) (17, -7.48952627182006835938e-02) (18, -4.39308360219001770020e-02) (19, 9.81991216540336608887e-02) (20, 9.10875573754310607910e-02) (21, 2.88148596882820129395e-02) (22, -5.54731152951717376709e-02) (23, 1.97112113237380981445e-02) (24, -1.49312168359756469727e-02) (25, -4.05536182224750518799e-02) (26, -3.19069847464561462402e-02) (27, -2.73672938346862792969e-02) (7, 3.15493568778038024902e-02) (8, 9.22403484582901000977e-03) (9, 2.60117724537849426270e-02) (10, -8.49854797124862670898e-02) (11, -2.85995453596115112305e-02) (12, -8.19233059883117675781e-02) (13, 5.65060451626777648926e-02) (14, -8.88349935412406921387e-02) (15, 5.71418181061744689941e-02) (16, 5.87089136242866516113e-02) (17, 2.66579017043113708496e-02) (18, -9.28987264633178710938e-02) (19, 9.22718122601509094238e-02) (20, -4.31082844734191894531e-02) (21, 9.77007970213890075684e-02) (22, -4.78232614696025848389e-02) (23, 5.11323288083076477051e-02) (24, -3.27525809407234191895e-02) (25, -7.88095295429229736328e-02) (26, 6.13519176840782165527e-02) (27, -7.64784216880798339844e-03) (7, -2.27403566241264343262e-02) (8, 5.95510378479957580566e-02) (9, -1.65602937340736389160e-02) (10, -9.39254984259605407715e-02) (11, -9.59220752120018005371e-02) (12, -9.68490839004516601562e-02) (13, -8.85671377182006835938e-03) (14, -3.64756882190704345703e-02) (15, -2.87560671567916870117e-02) (16, 6.37759938836097717285e-02) (17, 9.50736775994300842285e-02) (18, 8.04679766297340393066e-02) (19, -1.02122277021408081055e-02) (20, -8.99118036031723022461e-02) (21, -4.81315813958644866943e-02) (22, 7.86446034908294677734e-03) (23, 6.65942355990409851074e-02) (24, -3.69665771722793579102e-02) (25, -3.49937155842781066895e-02) (26, 2.53031328320503234863e-02) (27, 8.96913334727287292480e-02) (7, -2.78924405574798583984e-02) (8, 1.75749510526657104492e-02) (9, -5.34169524908065795898e-02) (10, -3.01916375756263732910e-02) (11, 6.97516873478889465332e-02) (12, 9.77153852581977844238e-02) (13, 3.70557829737663269043e-02) (14, 9.09421667456626892090e-02) (15, 5.90673014521598815918e-02) (16, -7.05920681357383728027e-02) (17, -3.17981913685798645020e-02) (18, 1.86183303594589233398e-02) (19, 1.28476396203041076660e-02) (20, -2.57236883044242858887e-02) (21, 2.26962715387344360352e-02) (22, 1.59985572099685668945e-02) (23, 6.54196068644523620605e-02) (24, 8.62205699086189270020e-02) (25, 8.72424915432929992676e-02) (26, 2.91955992579460144043e-02) (27, 8.12942460179328918457e-02) (28, 6.77104666829109191895e-02) (29, -8.10166299343109130859e-02) (30, 9.13824513554573059082e-02) (31, -8.04211199283599853516e-02) (32, 2.68478468060493469238e-02) (33, 5.79766705632209777832e-02) (34, -1.73876881599426269531e-02) (35, 9.18541178107261657715e-02) (36, -1.67201906442642211914e-02) (37, -2.76963561773300170898e-02) (38, -3.60383242368698120117e-02) (28, -9.91452336311340332031e-02) (29, 1.88866853713989257812e-02) (30, 3.37700322270393371582e-02) (31, 7.06064626574516296387e-02) (32, 1.66020616888999938965e-02) (33, -2.91741788387298583984e-02) (34, 6.15486279129981994629e-02) (35, -2.43306383490562438965e-02) (36, 2.33754515647888183594e-04) (37, -7.02495649456977844238e-02) (38, 9.42877009510993957520e-02) (28, -8.69186073541641235352e-02) (29, 4.02674823999404907227e-03) (30, 1.69839635491371154785e-02) (31, 2.90799662470817565918e-02) (32, -3.05536538362503051758e-02) (33, 3.20453941822052001953e-03) (34, 1.63224488496780395508e-02) (35, 9.86419394612312316895e-02) (36, -1.55012160539627075195e-02) (37, -1.59670859575271606445e-02) (38, -8.23746919631958007812e-02) 
