FANN_FLO_2.1
num_layers=3
learning_rate=0.700000
connection_rate=1.000000
network_type=0
learning_momentum=0.000000
training_algorithm=2
train_error_function=1
train_stop_function=0
cascade_output_change_fraction=0.010000
quickprop_decay=-0.000100
quickprop_mu=1.750000
rprop_increase_factor=1.200000
rprop_decrease_factor=0.500000
rprop_delta_min=0.000000
rprop_delta_max=50.000000
rprop_delta_zero=0.100000
cascade_output_stagnation_epochs=12
cascade_candidate_change_fraction=0.010000
cascade_candidate_stagnation_epochs=12
cascade_max_out_epochs=150
cascade_min_out_epochs=50
cascade_max_cand_epochs=150
cascade_min_cand_epochs=50
cascade_num_candidate_groups=2
bit_fail_limit=3.49999994039535522461e-01
cascade_candidate_limit=1.00000000000000000000e+03
cascade_weight_multiplier=4.00000005960464477539e-01
cascade_activation_functions_count=10
cascade_activation_functions=3 5 7 8 10 11 14 15 16 17 
cascade_activation_steepnesses_count=4
cascade_activation_steepnesses=2.50000000000000000000e-01 5.00000000000000000000e-01 7.50000000000000000000e-01 1.00000000000000000000e+00 
layer_sizes=3 7 2 
scale_included=0
neurons (num_inputs, activation_function, activation_steepness)=(0, 0, 0.00000000000000000000e+00) (0, 0, 0.00000000000000000000e+00) (0, 0, 0.00000000000000000000e+00) (3, 5, 5.00000000000000000000e-01) (3, 5, 5.00000000000000000000e-01) (3, 5, 5.00000000000000000000e-01) (3, 5, 5.00000000000000000000e-01) (3, 5, 5.00000000000000000000e-01) (3, 5, 5.00000000000000000000e-01) (0, 5, 0.00000000000000000000e+00) (7, 5, 5.00000000000000000000e-01) (0, 5, 0.00000000000000000000e+00) 
connections (connected_to_neuron, weight)=(0, 1.28363110125064849854e-02) (1, -8.55350255966186523438e-01) (2, 5.44296836853027343750e+00) (0, -1.98656499385833740234e+00) (1, -1.39088392257690429688e+00) (2, -2.19383215904235839844e+00) (0, -3.54111742973327636719e+00) (1, 2.75986886024475097656e+00) (2, -2.75937151908874511719e+00) (0, 2.37772613763809204102e-01) (1, 1.29790329933166503906e+00) (2, -1.13406133651733398438e+00) (0, 3.93432450294494628906e+00) (1, -5.45912742614746093750e+00) (2, -4.50698375701904296875e+00) (0, 5.01196527481079101562e+00) (1, -3.54550409317016601562e+00) (2, 4.92978906631469726562e+00) (3, 2.53147363662719726562e+00) (4, -2.08004117012023925781e+00) (5, 1.57736027240753173828e+00) (6, -1.13643085956573486328e+00) (7, 6.74986267089843750000e+00) (8, -6.48770952224731445312e+00) (9, 2.35475778579711914062e+00) 
